-0.0716947   0.059226   -0.0279046   0.0615296   0.0223766   0.00397778   -0.018699   0.0767934   0.063997   0.0506558   -0.0495311   0.0703151   0.0443377   0.00986862   -0.0268009   -0.0773777   -0.0640045   -0.0162209   -0.0542203   -0.0509677   0.0929919   -0.00200385   -0.0591604   -0.0791829   -0.0784405   -0.013871   0.013041   0.0199573   0.0253087   0.026254   -0.050909   0.0360329   
-0.0670227   -0.0153648   -0.102454   0.0263448   0.0570808   0.0604561   0.0109795   -0.0271587   0.0732952   0.0471683   0.0872826   0.0820006   0.0143869   -0.0550908   0.000864132   -0.0388176   0.0708919   -0.0433198   0.0564399   0.0676394   0.0944392   0.0949466   0.0270124   -0.0113234   -0.0334127   -0.0279759   0.0670252   -0.0758449   -0.0142235   -0.0637909   0.038511   -0.0701624   
-1.2274   0.801139   -0.887229   -0.0322431   0.022884   0.0409571   0.0665819   0.0471363   0.00486435   -0.0440622   0.0501538   0.00198035   0.000143132   0.0861023   0.0502767   -0.0610511   0.0248334   -0.0125838   0.0486264   0.0265691   0.0201709   -0.0167656   -0.0534779   -0.0406067   -0.00559816   0.0605042   0.0104935   0.0932482   0.051521   -0.0195268   -0.0504283   0.0350288   
-0.649239   -1.11299   0.696763   0.00834117   -0.0541882   0.0861771   -0.0552243   0.0783956   0.0412561   -0.0269665   -0.00535249   -0.0676843   0.0891572   0.0395578   -0.0531841   0.0735195   0.0637941   0.0218586   -0.0465136   -0.0488688   0.063009   0.00317133   -0.0527783   0.00818628   0.048103   -0.00902158   -0.0310735   0.01953   0.0393922   0.0522741   0.0463352   0.00317667   
-0.437655   0.487422   0.0232584   -0.0738581   0.0104775   0.0360222   -0.00541124   -0.0616813   0.0861344   0.0812423   0.0161707   -0.019452   0.00255181   -0.0143783   0.0682215   -0.0245471   -0.000182653   -0.0324194   0.0920199   -0.0278851   0.049358   0.0192737   -0.0457018   0.0532301   0.0669024   -0.0104102   0.00765755   0.0757787   -0.0751933   0.09406   0.0202029   -0.0711611   
0.568266   -0.829757   0.545821   0.0296828   0.0350822   -0.045376   0.0673777   -0.0584181   -0.0607627   0.050047   -0.0250385   0.084687   -0.0299359   -0.0211451   -0.055454   0.0482899   0.0660585   0.0438998   0.0250417   0.0507627   -0.0357733   -0.0547169   -0.0797169   -0.0693239   0.0610916   0.0692096   -0.0431489   -0.0597693   0.0168116   -0.0775059   -0.0600897   -0.000460372   
-0.246598   -0.0993683   -0.00587054   -0.0670701   -0.00357402   -0.0446603   0.0418383   -0.0291882   -0.00357936   -0.0393249   0.0211269   0.0132012   0.0300192   -0.0519665   0.00822367   0.0885324   0.0417582   0.0818404   -0.0467592   -0.0212091   -0.0487887   0.0941562   5.23392e-05   0.0946529   -0.0629363   0.029405   -0.0634811   -0.00339778   0.0830154   -0.0715242   0.0765584   -0.029247   
-0.209304   0.465583   -0.127038   -0.044655   0.0299124   0.0257253   -0.000967742   0.00161184   0.0246197   0.0310767   0.0695888   0.0650385   0.0293356   0.0461589   0.0190066   -0.0143516   -0.0477526   0.0491337   0.017148   0.0783903   -0.0374984   -0.0469355   0.0258267   0.0422388   0.0223072   -0.0185228   0.00653066   -0.0659325   0.0496304   0.0271085   0.0285665   0.0409464   
1.02   -0.814632   0.565664   0.0718532   0.0795225   0.0275732   0.0473446   -0.0724375   0.0368607   0.090893   -0.0248729   0.0196101   -0.0264805   -0.0495631   -0.061003   0.0720829   0.0689639   0.0502553   -0.0528957   -0.02279   -0.0661141   -0.0665947   0.0321715   0.0635003   0.0153909   -0.00155522   -0.00842875   -0.0277195   0.00147298   0.00771096   -0.0532856   -0.0234683   
-1.79848   -0.932985   1.17601   0.0878381   0.0728359   0.0468799   -0.0274899   0.0851997   -0.0577345   -0.068496   0.0573692   0.011802   0.0266866   0.08732   -0.0673531   0.0732365   0.0344253   -0.0236285   -0.0616599   0.00838389   -0.0402596   -0.0291989   0.0809966   0.0164537   0.0359902   -0.0599562   0.00619419   -0.013652   0.00694189   0.0588379   0.00912091   -0.0130859   
-0.459927   0.736342   0.0761932   -0.0108428   -0.0789692   0.0438784   -0.0623916   0.0290365   0.0710681   0.0060126   0.050784   0.00695791   -0.0134811   0.0574386   0.0167421   -0.017508   0.0872506   0.0303984   -0.0490985   -0.0145065   -0.0569654   0.0500737   0.086551   0.0270978   -0.0751292   -0.0222773   -0.0702158   0.0318618   -0.0569654   0.0682376   0.0712551   0.0244542   
0.000581443   0.280101   -0.111105   -0.057868   0.0438838   0.0280004   -0.0419259   -0.0684587   -0.050439   0.0292181   -0.0203279   -0.0241038   -0.0156761   0.0356751   0.0604187   0.0612038   0.0121438   0.026943   0.0596817   0.0776052   -0.0546582   0.0302809   -0.00957701   -0.0356024   -0.0561055   0.0696582   -0.0684213   -0.00513352   0.0203365   -0.0271   0.015909   -0.0405266   
-0.798847   0.599103   0.35015   -0.056426   -0.0302564   0.0579192   0.0766652   0.0581863   0.0501645   0.027664   -0.016803   0.0699145   -0.0400139   0.0711269   -0.0398483   -0.0363288   0.014921   0.0923457   -0.0705843   -0.0657509   0.011818   -0.00530976   -0.063433   -0.0347105   0.076019   -0.0392662   -0.0543538   -0.0581083   0.0830367   -0.0659806   -0.0717592   -0.0697244   
0.900223   -0.0948492   0.266787   -0.00426298   0.0855789   0.0665072   0.0134896   0.067367   0.0413683   -0.0104048   -0.0346464   -0.0792416   0.0119782   0.0870904   -0.0102286   -0.0378082   0.0224728   -0.0353514   0.039702   0.0854241   -0.00378765   0.0757894   -0.0787449   0.084671   0.0252713   0.0575774   0.0209186   -0.0550748   -0.0410927   -0.0129737   -0.0792523   -0.00686392   
-0.206977   0.476778   0.203452   -0.0686509   0.0619355   0.035862   0.0410105   0.0604721   0.012774   0.039985   -0.055016   0.0406633   0.047382   0.0561034   -0.0745631   0.0720188   0.0327911   0.0436488   -0.0650459   0.0165979   0.0858834   -0.0697137   -0.0318799   -0.0545941   0.0918116   0.0284971   -0.0288571   0.0814345   -0.0156815   0.0415445   -0.0417389   -0.0527142   
0.682954   -0.466147   0.300603   -0.0613768   0.077963   -0.00269814   -0.0659806   0.0568671   -0.049937   0.0905191   0.0557776   0.0723179   -0.0431382   -9.18607e-05   -0.0793431   0.0513608   -0.0600417   -0.00917646   -0.0255512   0.0937075   -0.0732493   -0.0358855   -0.0468767   -0.0366546   -0.0531361   0.0285559   0.0749402   0.0843399   -0.0457605   0.0564399   0.0329727   0.0349327   
-0.607418   0.859344   0.182375   0.0362305   -0.0536167   0.0313598   0.0196689   -0.00614292   0.0850288   0.0146005   0.0212497   0.0138795   -0.0353247   -0.010533   -0.0187043   -0.0735911   0.059169   -0.045611   -0.0677003   -0.0118522   0.0233807   -0.0675881   -0.045408   -0.0527195   0.032759   -0.000492416   0.025752   0.0420359   -0.00277291   0.0397821   -0.0106078   0.0662508   
-0.26934   0.0725604   0.260351   0.0733006   -0.0114516   0.092805   -0.047571   0.0767507   0.0205287   -0.00263939   0.0297842   0.0439906   -0.071316   -0.0300267   -0.0344649   -0.00866375   0.0766813   0.0442843   0.0474781   0.0768094   -0.0111258   -0.0104529   0.0781767   -0.0259944   -0.0120818   0.0198505   -0.0181275   0.0483967   0.0504369   0.0488667   0.0494008   -0.0556195   
-1.61906   -4.07955   4.03582   0.0794478   -0.0156281   0.0105896   -0.0608588   0.0788015   -0.0444627   0.010643   0.0345962   -0.00325892   0.0403375   -0.0641754   -0.0660767   -0.0667389   -0.0751346   -0.0178605   -0.0262348   0.0420252   -0.055032   -0.0109015   -0.0681275   0.0382546   0.0468639   -0.0452264   0.0414537   0.0277494   0.0346069   0.0151987   -0.0627975   0.015439   
-0.232006   0.644499   0.159293   0.0897447   0.0473766   0.0129182   0.0389863   0.0412401   -0.0148804   -0.011991   -0.0712572   0.0617112   -0.0503269   -0.0693559   -0.0256526   0.0572837   -0.0428178   -0.0236659   0.00481628   -0.0783978   -0.00302393   0.00887524   0.0260404   0.0527441   -0.00981201   -0.0187844   0.0674631   0.084906   0.0290793   0.0945247   -0.070643   0.0184993   
0.209823   -0.269357   -0.0730486   -0.0302617   -0.0753269   0.0271993   -0.0115424   -0.0767421   -0.0745685   -0.000252083   0.0701389   0.083934   -0.00966781   0.0472752   0.0270284   0.0614655   0.0731991   0.0219547   0.0241284   -0.0661728   0.0588058   0.000885495   0.0233593   0.023151   0.0196101   0.0628114   0.0377313   -0.019874   -0.0782109   -0.0332205   -0.0202264   -0.0393837   
0.204963   0.743729   0.455037   -0.0595503   0.0469761   0.030062   0.0764409   -0.0479716   0.0137246   0.0778509   0.0565146   0.0889116   -0.0454614   0.0777708   0.0595482   0.0868447   0.068542   0.0758107   0.0300246   -0.0475443   0.027963   -0.0336264   -0.0361365   0.048135   0.0579192   -0.0500865   0.0449306   0.00416471   -0.0657402   0.0611451   0.0696849   -0.0581884   
-0.220137   0.451824   -0.0460941   0.0533583   -0.0464228   0.0473606   0.0941295   -0.0773136   0.0333358   0.0410372   -0.0495257   -0.0673798   -0.0318799   0.0384095   0.0668116   0.0174151   -0.0150352   0.0564132   -0.0393089   0.0316909   -0.0394584   -0.0441957   0.0899316   -0.0306943   -0.0759944   0.0546133   -0.0534298   -0.0717806   -0.0783818   -0.0189981   0.0326789   -0.0199327   
0.665168   -1.69391   0.153837   0.015407   0.0423724   -0.0208513   0.0350662   0.0733433   0.0137086   0.0197543   -0.0705522   0.00151036   -0.0345022   -0.00530976   0.0710842   0.00515275   -0.0646988   0.0190173   0.0441455   0.0562316   0.0712391   0.0688464   -0.0287236   0.0712658   0.0328605   0.0506986   0.0650117   0.0539831   0.0725849   0.0789564   0.0796934   0.0113427   
0.138346   -0.157113   -0.0113223   0.0640344   -0.00514954   -0.0502788   -0.0798505   0.0350555   0.0553717   -0.0688485   -0.0642822   -0.0125091   0.0396806   0.061332   -0.0530346   -0.055   -0.0715189   -0.0194253   -0.0767528   0.0912241   0.0333358   -0.070611   0.0799765   0.0315574   -0.0044499   -0.0763149   -0.0375465   -0.0114089   0.034452   0.0568297   -0.0760051   0.0645578   
-0.145568   0.30114   0.0218727   0.0921107   0.00109912   -0.0424119   -0.0273777   0.0568778   -0.0200555   0.00410596   0.0264035   -0.0620605   0.0922762   0.0522687   -0.0535954   -0.000129246   0.0445354   0.094781   0.0557135   0.032289   0.0287107   0.0855683   0.0404283   -0.0292843   0.0192523   -0.0291829   0.015941   0.0446635   -0.0368735   0.0156687   0.00621021   0.0866097   
-0.367447   -0.676475   0.72581   -0.00199316   0.0597832   0.0504689   0.0930613   -0.0441903   0.0301581   0.0792181   0.0234768   0.0807189   0.00846934   0.00564409   -0.00129887   0.0756345   0.0845695   -0.0479876   -0.0359069   -0.0444734   0.0478359   0.0846977   0.029389   -0.0727633   0.0322356   -0.0739596   0.0173617   0.0152841   -0.00189169   -0.0692598   0.0943057   -0.0576437   
-0.0355068   -0.0653614   -0.0719844   0.0355416   -0.0218233   -0.0247073   0.0343773   -0.00815638   -0.00518693   -0.0412156   0.0387407   -0.0508716   0.00707007   0.00883786   0.0604775   -0.00386242   -0.0792096   -0.0205896   -0.0142181   -0.0574995   0.0647821   0.0483273   0.0759496   0.0325828   0.0338539   0.0100342   0.0484448   0.0490056   0.0874909   0.00152104   -0.0164292   -0.0603674   
-0.0521518   -1.07991   0.638255   -0.0609816   0.0721523   0.0532408   -0.0731532   -0.00708289   0.0838218   -0.0681436   -0.0511493   -0.0430261   -0.0595396   0.0234448   -0.0592886   0.028198   0.0215168   0.0408022   0.0480229   0.0802382   0.0372025   -0.0277622   0.061551   -0.0138176   0.0945621   0.0551901   -0.0442277   -0.0501506   -0.0120551   -0.0482867   0.0216717   -0.0457659   
0.0522194   -0.0430328   -0.0470567   -0.0268009   -0.058856   -0.0453226   -0.0719088   0.0549551   0.053182   0.0741818   -0.0796902   -0.00149113   -0.00538453   0.0602692   0.000735954   0.00660009   0.0511419   -0.0382621   0.0178957   -0.0637695   0.0813544   0.0764196   0.0699786   -0.0695642   0.00590579   0.0306067   0.0507627   0.0523115   -0.0352446   0.0792341   0.0585975   -0.0450662   
0.296011   0.188749   0.0560717   0.0583145   0.0432269   -0.0757915   0.0480549   0.0168383   0.0799872   0.0732205   0.0594627   -0.0265499   -0.0108855   0.00433027   -0.0707979   0.0340942   -0.0798505   0.0545012   0.0523328   -0.0415467   -0.0529171   -0.0699327   0.0373574   -0.0742801   -0.0194734   0.0421267   0.0596764   -0.00365413   0.0918009   0.0312209   -0.028323   0.00347041   
0.779499   -0.34379   0.592851   -0.0549359   -0.0549733   0.0806494   -0.0259731   -0.0145813   0.0624215   -0.0718394   0.0624856   -0.0380004   0.0771299   -0.0351111   -0.0328626   -0.0435975   -0.039859   0.0680773   0.0730976   0.0753461   0.067837   0.0266225   -0.0728434   -0.0496326   -0.0478434   -0.0177163   -0.00137898   -0.0476138   0.0765317   0.0290312   0.0156099   0.0795439   
0.32112   0.204763   0.416849   0.396897   0.41131   -0.624167   0.354883   0.763433   -0.473008   -0.0359587   0.595571   0.269496   1.06891   -0.455711   0.594443   -0.495585   0.812458   0.0526161   -0.727205   0.972092   -0.242047   0.564468   0.74535   1.22985   -0.0571244   0.639828   0.612921   -0.00823668   -0.271188   -0.0242539   0.0254241   -0.514192   
-0.0235163   -0.0238866   -0.000979665   0.26116   -0.293004   0.75904   -0.157355   -0.606178   0.531081   0.533906   -0.479663   -0.16136   -0.520152   0.244457   -0.25797   0.378803   -0.770784   0.204198   0.647431   -0.588423   0.155195   -0.410305   -0.566492   -0.221967   0.112545   -0.301221   -0.198189   0.191119   0.420287   0.175154   0.0154535   0.603748   
-0.0514103   0.026646   -0.00677039   0.00423952   -0.011645   -0.0395748   0.0554962   -0.0812685   0.0201873   -0.0370608   0.02906   0.0157531   0.0500917   0.0809604   0.0465948   0.0386688   0.0383119   0.0585406   -0.0087698   -0.0171553   -0.0593595   -0.0775327   0.0316115   -0.068017   0.0819478   -0.0153941   0.0256822   -0.0722403   0.0433644   -0.0704878   0.0494809   0.137679   
0.0131476   0.0506535   0.0351373   0.111557   0.0421417   -0.0713796   -0.00901507   0.103169   -0.103139   0.122271   0.0131744   -0.0749865   0.0597089   -0.0799285   -0.00645094   -0.0937421   -0.0209082   -0.0368399   0.0181196   0.103054   -0.0255569   0.0722745   0.0117482   0.0429273   -0.0880365   0.109872   0.0985858   0.00233135   0.0241227   -0.0249819   0.00461204   -0.0908882   
0.0804187   -0.0314807   -0.221107   -0.198434   0.201187   0.126364   0.137986   0.212898   0.266408   -0.55085   0.1618   0.0747972   0.183111   0.299831   0.284871   0.132932   0.230357   0.153711   -0.2969   0.187337   0.0188454   0.366341   0.252065   0.079683   0.0361667   0.207135   0.114135   -0.0121292   -0.116154   0.051016   0.291482   0.211704   
-0.0171858   0.108557   0.101225   0.127654   0.0257703   -0.272843   0.0231199   0.0940669   -0.261291   0.172735   0.0352265   -0.0529578   0.218055   -0.269836   0.104687   -0.21898   0.169537   0.0600502   -0.0308602   0.148771   -0.103394   0.0332176   0.217659   0.117107   0.0377826   0.158576   0.237052   0.0176212   0.000239022   -0.0652887   0.0167588   -0.2732   
0.0846241   0.0463045   -0.0585493   0.0535889   0.0024551   -0.0478625   -0.076222   -0.0738047   0.00239343   0.0692229   -0.0567896   -0.0772101   -0.0450679   0.0655136   0.0583182   0.0585783   0.0336365   -0.0271311   0.0524608   0.0791437   0.0694951   -0.0380215   0.00585372   -0.0772052   -0.0659257   -0.0755179   -0.0207521   0.0461235   -0.00815605   -0.0471738   -0.0263525   -0.0459935   
0.0934158   -0.0369594   0.0299746   0.114297   0.00565774   0.0079152   -0.00568746   0.130692   -0.165151   0.0366797   -0.0260116   0.0692373   0.07251   -0.109095   0.0205782   -0.0838899   0.0899566   0.0725238   0.133533   0.161744   -0.099589   -0.058024   0.0631947   0.164999   0.0788605   -0.023587   0.178987   0.0772331   -0.00109856   0.00777253   0.00388892   -0.0912737   
-0.0419714   0.096787   0.0500819   0.0223076   -0.00245913   0.101059   -0.0930482   -0.113322   0.140632   0.0251965   -0.0730117   -0.0433011   -0.100765   0.120836   0.0426883   0.134374   0.000561019   -0.0104277   0.00334121   -0.127404   0.14399   -0.0324142   -0.0960899   -0.0481674   0.050815   -0.0694072   -0.0942039   -0.0251259   0.0267683   -0.00553877   0.119656   0.172775   
0.158193   0.0734498   0.185547   0.0816151   0.165441   -0.225056   0.170805   0.269274   -0.15926   -0.0287318   0.160555   -0.0214217   0.384184   -0.06947   0.194985   -0.126163   0.242564   0.0790063   0.0603279   0.311733   -0.0254418   0.225778   0.145924   0.230962   0.0639162   0.0887965   0.234702   -0.058429   -0.030151   -0.048515   -0.0750091   -0.180868   
0.0944682   0.0102722   0.0322956   -0.0672882   -0.0118225   0.0827304   0.0737198   -0.0152789   -0.0383287   -0.0305036   -0.0664147   0.0959616   -0.0418115   -0.0672808   -0.0364104   -0.0297913   0.0633317   0.034798   -0.0712902   -0.0269315   -0.0564507   -0.0370748   0.0240333   -0.0413333   0.0314195   -0.0565768   0.00340881   0.0538387   -0.0232528   -0.0694364   -0.0293979   0.0388838   
0.15068   0.0699776   0.146937   -0.0359146   0.254023   -0.058364   0.178257   0.301083   0.129877   -0.0910684   0.18851   0.195702   0.307742   0.115239   0.205737   -0.030263   0.252216   0.14241   -0.0738742   0.391762   0.00504217   0.358065   0.222319   0.320023   0.0627375   0.209226   0.133827   0.0671653   0.021513   -0.00865212   0.18742   -0.0357099   
0.0767267   0.0448337   -0.0336232   -0.034993   -0.0438737   0.106168   -0.0563999   -0.115707   0.0052222   0.00288848   -0.0107747   0.0622541   -0.0799957   0.100733   -0.141963   0.0832011   -0.0554885   0.0895917   0.0785448   -0.0689455   0.0999474   -0.00516308   0.0131941   -0.0299943   0.0432727   -0.0795597   -0.00466509   -0.0364678   0.0766546   0.0632959   -0.0130618   0.160264   
-0.0644105   -0.0139938   -0.0770175   0.0345612   -0.0324527   -0.0686541   -0.0398672   -0.0411296   0.0583731   0.0383712   -0.0673926   0.00164674   -0.0592392   0.0840548   -0.0596245   0.00714685   0.0953119   0.0152738   0.0642577   0.00125038   -0.0209461   -0.000692525   0.0424872   0.0680899   0.0781043   -0.0265914   -0.0748992   0.0197537   -0.084933   0.0260457   -0.0125956   0.0728665   
0.0407736   -0.0106398   0.00345834   0.0170764   0.00545962   0.204071   -0.0973356   -0.121897   0.0949935   0.07628   -0.0940507   0.0699434   -0.021334   0.00877838   -0.0900819   0.101025   -0.0990159   0.130179   0.0502929   -0.0952073   0.0717009   -0.0732445   -0.0534588   0.0907885   0.0284892   -0.0495513   0.0380238   0.0608561   0.0873478   0.0796657   0.0923561   0.0449781   
-0.0339924   -0.0205561   -0.050156   -0.0578262   0.0118168   0.045096   -0.00597026   -0.0401186   0.0529113   -0.141675   -0.031743   0.0884221   -0.0198007   0.139087   -0.0310259   -0.0302674   -5.94247e-06   -0.0333223   -0.25543   0.0328152   0.0863277   -0.0473876   0.107701   0.041837   0.101516   0.0315183   -0.0634484   -0.00557423   -0.000347158   -0.0020217   0.0276201   0.0748705   
0.068986   -0.0119569   0.000815432   0.0489991   0.0501247   -0.0747213   -0.0634802   0.0565755   0.0567377   0.0332304   -0.013888   0.00299124   -0.0543526   -0.0176753   -0.0437802   -0.0303526   0.0855536   -0.0413513   -0.0323205   -0.0463321   -0.0251773   -0.0465691   -0.0281259   -0.0386838   -0.0515672   -0.0179835   -0.063023   0.00706289   0.0843399   0.0594165   -0.00477466   0.0691385   
-0.0426283   0.0134813   0.0270655   0.0465804   -0.0358024   0.0811273   -0.0353191   -0.0320455   0.0592043   0.0913052   0.0251493   0.0586456   -0.0703124   -0.0541413   -0.0311073   0.0732608   0.0608078   0.0218936   0.00862104   -0.0400712   0.0899717   0.000422265   -0.0733812   0.0769281   -0.0574742   -0.0327932   -0.0209346   0.0469239   0.011149   0.0061445   -0.0495858   0.0912731   
-0.0498058   -0.0354192   -0.00378284   -0.0068752   -0.04981   0.241112   -0.135663   -0.160975   0.158335   0.130973   -0.0893816   0.0633597   -0.299031   0.0273117   -0.0457053   0.097085   -0.104378   0.0226386   -0.0486284   -0.251911   0.0571796   -0.187798   -0.212398   -0.199954   0.157472   -0.0853155   -0.0517366   0.0382796   0.20025   0.129324   0.138844   0.279443   
0.10124   -0.022429   0.00115905   -0.0178172   0.100594   -0.123609   0.110261   0.041978   0.00655261   0.0340339   0.0086134   0.0487159   0.181916   -0.0982665   0.0450886   -0.0485546   0.0204169   0.00648553   -0.0105007   0.144123   0.0243112   0.0795164   0.0519631   0.166341   0.0161488   0.0151901   0.05732   -0.0644352   0.0653968   0.044109   -0.0290705   -0.10548   
-0.0884351   -0.0791926   -0.175364   0.20682   -0.0546854   -0.00527603   -0.0798023   0.0266568   0.012746   0.26571   -0.0333764   -0.057233   0.0995339   -0.0603648   0.0306423   0.023407   -0.0218732   -0.0172673   0.609855   0.0282681   -0.115411   0.0682708   -0.0984985   -0.0484878   -0.121141   -0.0949071   0.0260837   -0.0371856   0.0542403   -0.044086   -0.111204   -0.0795657   
0.0593273   -0.0317652   0.0789955   -0.0345985   0.151711   -0.17541   0.155615   0.259457   0.0548835   -0.0730466   0.190211   0.0596755   0.44707   0.0800994   0.23488   -0.113121   0.311569   0.116497   -0.118126   0.289008   0.0155695   0.332856   0.226434   0.362194   0.096271   0.284381   0.209192   0.00703679   -0.0375076   0.0131033   0.0577291   -0.039014   
0.0530695   -0.0346937   0.00922757   -0.0857757   -0.0172946   0.0607753   0.0613107   -0.0102706   0.145764   0.0315275   0.00642734   0.00579786   -0.0110513   0.0913321   0.00170457   0.081255   0.00668152   0.0295692   0.0244018   -0.0416603   -0.035636   -0.0342195   -0.0703002   -0.0173917   -0.0058349   0.00264997   0.0279495   0.0252071   -0.0324256   0.0465443   0.112272   0.123229   
-0.0600693   0.101136   -0.336734   -0.222102   0.0182688   0.203689   -0.010413   -0.0600749   0.244799   -0.251832   0.0268855   0.0861981   -0.0579358   0.1454   -0.0720179   0.212124   0.142331   0.0683084   -0.507639   -0.0962554   0.188438   -0.0212272   -0.0673193   -0.465317   0.0281071   -0.0799976   -0.0982082   -0.00367953   -0.0320262   0.0685875   0.229015   0.260397   
-0.0498229   0.0383075   -0.154731   -0.0623335   -0.0971688   0.293807   -0.148153   -0.133811   0.197099   -0.180334   -0.274319   -0.0791245   -0.201922   0.240255   -0.111319   0.165443   -0.248261   -0.0299603   0.085712   -0.249689   0.126941   -0.144965   -0.0759544   0.280889   0.115231   -0.132236   -0.0710982   0.0435834   0.0648717   0.0887991   0.0823428   0.128464   
0.0520395   -0.0155021   -0.0382307   0.0614804   0.0585885   -0.0321877   0.0190814   -0.0472349   -0.056441   0.0504904   -0.00639328   -0.029811   -0.0470945   0.0177867   -0.034555   -0.0239846   -0.0398377   0.0365054   0.0369725   0.0410021   0.033108   -0.0664276   -0.0205837   0.0902327   -0.022738   -0.0239592   -0.0503432   -0.0145461   -0.0317501   0.0889513   -0.0364916   -0.0329523   
0.106188   0.104469   0.10469   0.0469147   0.11715   -0.0519243   0.114232   0.0389582   0.0441509   0.0735623   0.00540525   0.0897588   0.173876   -0.00256103   0.184796   -0.0268545   0.0856854   -0.022506   -0.0488951   0.166572   -0.00932316   0.123524   0.144698   0.172079   -0.0359095   0.117327   0.162025   0.0199149   0.066243   0.0985097   0.0953327   -0.043245   
-0.0187419   -0.0516644   -0.0662242   -0.079542   -0.012104   -0.103329   -0.0337981   0.101022   -0.071809   -0.055086   0.21757   0.0527557   0.0744358   -0.0210213   -0.0198435   -0.0509277   0.226462   0.0572106   -0.00862105   0.0213815   0.00236542   0.104645   0.0808375   -0.307798   0.0397982   0.0232283   0.098445   -0.104505   -0.0723558   -0.0330253   -0.0861942   -0.0241933   
0.0977147   0.0792243   0.122338   0.174995   0.145889   -0.293129   0.151072   0.151623   -0.267642   0.160699   0.236133   0.0953114   0.404147   -0.201888   0.230298   -0.155673   0.244802   0.0589387   -0.013515   0.202263   -0.0349326   0.0591817   0.166987   0.281717   0.0484904   0.220666   0.295941   -0.0404347   -0.0653912   0.0134676   -0.0143526   -0.225389   
0.175379   0.100451   0.155478   0.152467   0.146399   -0.0216069   0.0994867   0.17513   0.161615   0.00611197   0.166107   0.0404973   0.341823   0.0678267   0.190796   -0.0504615   0.176989   0.0463224   0.0746448   0.378316   0.0841862   0.206917   0.220569   0.398056   0.143137   0.25599   0.207189   0.104191   0.0447914   0.0677048   0.133274   0.0166073   
-0.0534837   -0.0775865   -0.136064   -0.01541   -0.0483808   0.159326   -0.0445735   -0.11189   0.314222   -0.0365019   -0.0961766   -0.0574625   -0.167826   0.117831   -0.0414321   0.124087   -0.244742   -0.0242997   -0.0770649   0.00349338   0.0752721   -0.142239   -0.180479   0.179225   0.096033   -0.0341942   0.035988   -0.0702775   0.0979417   0.0219495   0.0254814   0.284528   
-0.0128234   0.0917034   0.112806   0.0196624   0.196292   -0.150348   0.0461196   0.27523   -0.0537341   -0.179   0.148707   0.0871816   0.346448   0.0700082   0.253102   -0.086856   0.347006   0.049936   -0.0517657   0.184127   -0.00849098   0.263967   0.306186   0.17943   -0.0366278   0.099081   0.120726   -0.0451674   -0.0197509   0.0429254   -0.00971372   -0.142711   
1.08527   0.387914   0.204856   0.177585   0.502324   0.323963   -0.0251498   0.535634   0.0725244   0.660105   0.040144   -1.05974   0.378002   -0.00773012   0.417683   0.439979   -0.0384069   -0.575778   0.960373   0.18872   0.809641   -1.00144   -0.405518   -0.464326   -3.48422   -0.0609445   -0.107754   -1.63375   0.327077   -0.665277   -2.12749   0.447203   
-0.522694   -0.124187   -0.261604   0.0799742   -0.751235   0.255341   0.0471402   -0.131175   -0.0251298   -0.239529   0.0936439   0.567592   -0.249528   -0.0549654   0.0268607   -0.403322   0.0687517   0.497311   -0.422228   0.0910124   -0.76875   0.59393   0.16506   0.0451886   -0.150926   0.0571125   0.188356   -0.0716522   0.252257   0.338193   -0.0161649   -0.117769   
-0.00199285   -0.0690049   0.0269039   -0.0259873   -0.113176   -0.0395187   0.0640558   0.0334689   0.0225398   -0.0816738   -0.0652112   0.0284335   0.0380895   0.0566612   -0.0131809   -0.0699371   0.00703857   0.12844   0.022152   -0.00427502   -0.0268533   0.176571   0.00446622   0.0681821   0.103621   0.0241654   0.0254756   0.0239055   0.0835579   0.116873   0.108486   -0.00755481   
0.0314992   0.16372   0.131436   0.0347975   0.136058   -0.089095   0.018972   -0.00117301   0.0453782   0.0307804   0.0925998   -0.00944555   -0.00117385   -0.0270006   -0.0043981   0.0802436   0.0799491   -0.0171641   -0.0129438   0.0424116   0.101915   -0.0242046   0.0676153   -0.0866651   -0.110693   -0.0347879   -0.0166461   0.000929351   -0.053582   -0.0919872   -0.0781156   0.0880017   
0.0958178   -0.762429   -0.0233826   -0.0248717   0.121644   0.0464527   0.0816553   -0.0688917   -0.245114   0.114638   -0.0366715   -0.0552303   -0.216186   0.054404   -0.218802   -0.0186637   -0.0703194   -0.0949308   -0.144583   -0.0162671   0.168818   0.00665566   -0.157547   -0.25038   0.0471961   -0.0769346   -0.136859   0.0786873   0.020552   -0.122547   -0.109333   0.173258   
0.113594   0.219255   0.130963   0.027032   0.215533   -0.0359802   -0.0677451   0.0201176   -0.0950582   0.120808   0.0935935   -0.0573953   -0.013894   -0.000490432   -0.0454728   0.0693089   -0.0507545   -0.0898354   0.0115296   0.00305112   0.156622   -0.0798212   0.0300168   -0.131177   -0.0921543   0.0862079   0.0750244   -0.127876   -0.0576478   -0.062252   -0.116275   0.112402   
-0.00716635   -0.0040271   0.0174251   0.0502528   0.0268388   0.0573149   -0.0293583   0.0804725   0.0517454   -0.0232338   -0.0522942   -0.0830364   0.0671465   0.0911713   0.0027585   -0.0572035   -0.0681299   -0.0395553   -0.0341471   -0.0222365   0.0540773   0.0416947   0.0181208   0.0562945   0.0152371   0.0791424   -0.0640187   -0.0515654   -0.0754105   -0.0178596   -0.0342182   -0.0624964   
0.058305   0.158932   0.0735013   -0.0286964   0.0814254   0.0296174   -0.0714269   0.0574694   -0.0370994   0.0140426   -0.0419037   -0.0153463   -0.0400923   -0.0504247   0.0659129   0.0379692   0.0662066   0.0350637   0.0173993   -0.0752327   0.0691124   -0.0269654   0.0595933   -0.011094   0.105752   0.00995613   -0.0727247   -0.0944529   -0.0355264   0.031308   0.0127172   0.00264906   
-0.059865   -0.0672963   0.0259726   -0.0113445   -0.0287738   -0.0327699   0.0897183   -0.0975042   0.0271069   -0.0771799   -0.0169825   -0.0128998   -0.0166742   -0.039802   0.0680788   -0.0286188   -0.066734   0.167108   -0.00694891   0.0310837   -0.0704494   0.140914   0.038399   0.122819   0.0736378   -0.0450941   -0.0185964   0.107814   0.0881234   0.0761735   0.12335   0.0477359   
0.181937   0.0455199   -0.0112507   0.0385057   0.0838326   0.0664488   0.0639163   0.0791112   0.00757852   0.0914158   -0.0106255   0.0250482   0.0886996   0.00998343   -0.0448705   0.0460964   0.0368894   -0.0484346   0.0851461   0.0171276   0.00871464   -0.0667417   -0.063997   0.0120714   -0.112226   -0.0546613   0.0554664   -0.00579181   0.0353158   -0.0157123   0.0309948   0.120242   
0.158084   0.0338673   0.0135773   -0.0660099   0.119418   0.0894053   0.0165523   -0.0108353   -0.083767   0.119775   0.062418   -0.0537926   -0.0593283   0.0696223   -0.0152162   0.0678891   -0.068878   -0.0298823   -0.0724574   -0.0502908   0.014744   -0.0670056   -0.0434344   -0.0231669   0.0613399   -0.0182922   0.0234831   -0.0588373   0.105082   -0.00514903   -0.0330678   0.118813   
0.155877   -0.241451   0.04631   0.0377172   -0.0199736   0.0287802   -0.0373628   0.0427789   -0.0972683   0.175078   0.0510941   -0.130366   -0.141674   -0.048729   -0.195522   -0.0180304   0.0915083   -0.032798   -0.200119   -0.0787265   0.209399   -0.0893056   -0.119142   -0.293709   0.0613258   0.0206045   -0.0255428   0.0104644   0.173486   -0.124895   -0.245541   0.153151   
-0.0474489   0.101765   0.0716994   -0.0506491   -0.101472   -0.0100919   -0.0588582   -0.0374069   0.00365377   0.0442649   -0.0766446   0.114029   0.0625014   0.0582246   0.0660545   0.0465768   0.0287892   -0.0225813   -0.0643287   0.0139645   0.0334023   -0.0110385   -0.0143681   0.0652961   0.0321568   -0.0187153   0.00468481   0.1125   0.061004   0.109007   0.117044   -0.00135184   
0.0775345   -0.292534   0.0526541   0.0355247   0.128637   0.0137204   0.0244266   -0.0946441   -0.14631   0.143252   -0.0696408   -0.0731231   0.0356239   -0.0442705   -0.262256   -0.0383619   0.013564   -0.194962   0.0454225   -0.0159961   0.0661735   -0.163722   -0.116488   -0.219689   0.013557   -0.0853364   -0.0624032   0.0654098   0.0546941   -0.0697928   -0.214141   0.121123   
-0.02112   0.0756349   0.0573437   0.0746629   -0.00907624   0.0300374   -0.0360199   0.0152571   0.0484872   0.0187478   0.0868054   0.0446105   -0.0503985   -0.0176734   0.07739   0.0502608   0.0506127   0.12028   0.0645828   -0.0607835   -0.0706495   -0.0400014   0.0951805   0.0153901   -0.0106665   0.0318492   -0.0469445   0.00144722   0.0422817   0.0557683   0.117813   -0.0643897   
0.0564702   -0.0801164   -0.0114539   -0.0643517   -0.00222475   0.0634502   0.0540885   0.0490063   0.0267571   -0.00993495   0.00758689   0.022761   -0.0905138   -0.030511   -0.0783135   -0.0277399   0.0288244   -0.0843816   0.0777282   -0.0265289   0.079512   0.0152099   -0.0827226   0.012734   -0.0064342   -0.0548865   -0.0196094   -0.034939   -0.0245042   -0.0699434   -0.0703871   -0.0254064   
0.126071   0.166573   0.0233807   0.0206326   0.218995   0.0137134   -0.0759358   0.100267   0.00058896   0.00509104   -0.0624009   -0.0629042   0.0270303   -0.00763049   -0.0783824   0.0822312   0.0880533   -0.113111   -0.0564574   -0.027357   0.154019   -0.177103   0.0585134   -0.103436   -0.00876691   -0.0483517   0.0443486   -0.132317   -0.036676   -0.0478226   -0.0420153   0.0539285   
0.0304199   0.02693   0.0204145   0.0155253   0.0666446   -0.0268839   -0.0708473   0.0234567   -0.0324269   0.0354827   0.067902   -0.0233074   0.0745556   0.00663502   0.0214244   0.0488359   -0.0756071   0.0749125   0.000919388   -0.0304972   -0.0152647   0.0569813   -0.0572965   0.0966414   -0.0512789   -0.0420349   0.0476111   0.0300315   -0.0338912   -0.0657487   0.102233   0.031923   
-0.0452482   0.547076   -0.0907614   -0.0427157   -0.0318176   -0.0262795   -0.0745666   -0.00794354   0.115577   -0.10386   -0.00169817   0.107334   -0.0144196   -0.00583203   0.101694   0.0745734   -0.0169133   0.0871425   0.0339674   -0.0141973   -0.000871052   0.00686322   0.0515768   0.0915286   0.126792   0.00193566   0.0491691   -0.0668233   0.0295979   0.0149395   0.101891   -0.100266   
0.0565488   0.0536774   0.112461   0.0517701   0.0712309   0.0429912   -0.0302347   0.0368487   -0.0835551   0.0676649   -0.0229875   -0.0561023   -0.0795008   -0.00439186   -0.036864   -0.000463663   -0.0789937   -0.0662985   0.0669208   0.0535365   0.0714722   -0.0617508   0.0178398   0.0289585   -0.0609947   0.0817207   0.0502234   -0.0140211   0.0688223   0.0327903   -0.0488201   0.0155176   
0.22928   -0.175649   -0.0426557   -0.000397466   -0.0119568   0.0596547   -0.0217518   0.0185776   -0.20625   0.144768   0.00690692   -0.179852   -0.0721132   -0.0582651   -0.108538   0.068277   -0.00858189   -0.171464   -0.0296414   0.036823   0.156976   -0.142608   -0.141702   -0.26666   0.00129617   -0.00680505   0.00218315   0.00274017   0.169979   -0.121365   -0.22952   0.0798215   
0.152096   -0.258847   0.00272581   -0.0200548   0.0278017   0.0567208   0.0621018   -0.0130915   -0.124592   0.138168   0.0373058   -0.065651   -0.220873   -0.0300214   -0.246534   -0.0966289   -0.0117031   -0.171094   -0.18879   0.00708113   0.151628   -0.0192904   -0.0330726   -0.249007   -0.0226591   0.00787072   -0.013646   -0.0153995   0.139392   -0.189218   -0.215212   0.0550299   
0.015409   -0.0405233   0.00542683   0.0705335   -0.0405561   -0.0259446   0.0105285   0.0929116   -0.00360406   0.0502038   -0.04167   -0.00869953   0.0631893   0.0939477   -0.00525136   -0.0619468   -0.0462339   0.0772551   0.00518393   0.052947   -0.120454   0.00586041   -0.0542179   0.155846   0.0616015   0.0111848   0.0783359   -0.0633492   0.066513   0.0888684   0.028989   0.0185263   
-0.113234   0.419232   0.0499199   -0.0539641   0.0409932   -0.0370582   -0.00382139   0.0315271   0.142526   -0.0628049   -0.0569021   -0.0560224   0.0674485   0.0310485   0.182522   -0.0147528   -0.00246908   0.076119   0.0303791   -0.0627503   -0.00318744   0.0472451   0.109288   0.0422504   0.0706577   0.0304966   -0.0402126   -0.0652539   -0.139183   0.0267424   0.127727   -0.0223802   
-0.0685244   0.0747528   0.0795631   -0.0585842   -0.0935067   0.0714662   0.0379083   -0.0199018   0.0031572   0.0409787   -0.0632512   0.103647   -0.0106384   0.069322   0.0714117   0.0532367   -0.043363   0.0587111   0.0635815   0.0341776   0.0429599   0.0351131   -0.00244235   0.0612208   0.0324642   0.0494748   -0.0267369   0.0442652   0.0702681   0.0202985   0.0821967   0.0798886   
0.0641954   -0.127189   0.0313625   0.0745237   -0.0133543   0.145777   0.00812183   0.0252835   -0.0909839   0.0660655   -0.00316723   0.103899   -0.0253218   0.0209725   0.0194382   -0.0469186   0.0843734   0.0588214   -0.0134966   0.010544   -0.0597565   0.0088968   0.0477425   0.0850401   -0.100162   0.0153592   -0.0499089   -0.0840541   0.0728223   -0.00941341   -0.0543127   0.0377535   
0.160468   -0.00467224   -0.0200437   0.00464861   0.0498411   0.0718525   -0.0138566   -0.0620602   -0.134531   0.0323859   -0.0596083   -0.161261   -0.106603   -0.0690823   -0.0556096   0.0559842   0.00632816   -0.0501617   -0.119546   0.0477284   0.17955   -0.0425644   0.0289107   -0.195797   0.0700256   0.0135278   -0.0207436   -0.0160508   0.0399336   -0.0546284   -0.238532   0.0596272   
-0.0659415   -0.0680966   -0.0460178   0.0364324   -0.0339839   0.085265   0.0690357   -0.00345951   0.013529   -0.0145347   0.0618702   -0.0490489   -0.0706519   0.0552489   -0.0521183   0.0746419   -0.0522663   0.00458647   0.0728666   0.00197685   -0.0297472   -0.077823   -0.0616713   -0.0182549   -0.0644528   0.0868225   0.0951625   -0.0506586   0.0662326   -0.0736702   0.0550581   -0.0549984   
0.205737   0.156083   -0.015638   -0.0747129   0.102496   0.00595504   0.0407849   0.0915144   -0.0544982   0.145441   0.0574249   -0.0986564   -0.0211044   0.00344311   0.0280258   -0.0103478   0.0209579   -0.0550937   -0.0284557   0.0545022   0.110108   -0.0742602   -0.00959363   -0.175532   -0.0878717   0.0689332   0.0510389   -0.0375145   -0.0375924   -0.046473   -0.0871523   0.011972   
0.31907   0.0278636   0.0870724   0.0848731   0.122861   0.0633072   0.0599096   0.0219367   -0.05432   0.144031   -0.0802421   -0.0762674   -0.0496323   -0.0250461   -0.0524429   0.0742124   0.0759212   -0.0102968   -0.00682485   -0.00608605   0.13513   -0.0812887   0.036975   -0.02146   0.0572982   -0.0687554   -0.0012575   0.0247447   0.143498   -0.0599301   -0.0529223   -0.0178935   
-0.0748492   -0.0599802   -0.0170963   0.0844561   -0.0312031   0.0525044   -0.0410429   0.00700584   0.0072327   0.0253287   -0.0675141   0.0886093   0.094473   0.0182732   -0.00964664   -0.0810377   0.0164278   0.076213   0.00934821   0.0473046   -0.012596   0.0217744   -0.00247953   -0.00906699   -0.0448766   -0.0471282   -0.0311455   -0.0426232   0.0396911   0.07054   0.0610757   0.0221727   
0.15224   -0.167849   0.0804332   0.058371   0.08191   -0.00273284   -0.0495646   0.100148   0.071032   0.0696268   -0.0358337   0.0774281   -0.0399302   0.0641359   -0.0474591   -0.0129625   -0.00483257   -0.0408139   0.0675013   0.00930594   -0.0603914   -0.00705832   -0.0551907   0.0593902   -0.109219   0.0244693   0.0744589   0.0564454   0.0778223   -0.0058735   0.0216063   0.119988   
-2.50302   0.75583   0.39246   0.0105687   0.606741   -0.593043   -0.095972   -0.0702473   0.391378   -0.691649   1.45197   0.572689   0.219084   2.32218   0.164495   0.145261   -0.105382   -0.214391   2.88882   -0.435523   -0.402388   0.0138452   -0.0595729   0.0288268   0.149318   -0.150864   -0.373946   -0.0754217   -0.18933   2.13783   -0.153325   -0.679913   
0.0930914   -0.2977   -0.492922   0.102743   4.50817   0.581412   -0.0437095   -0.0315329   -0.444796   -0.511993   0.297714   2.35992   -0.108311   -0.112008   -0.113216   0.0882584   0.691298   -0.0409319   1.15771   -0.433838   3.09289   3.47495   -0.680874   2.37439   -0.372539   0.0753471   1.3302   0.0358705   0.310342   0.502716   -0.438511   -0.529568   
0.0277227   -0.050893   0.065172   -0.0410073   -0.00900555   0.0487065   0.0446101   0.021709   0.0926714   -0.0795994   0.0855843   0.0217411   0.000249947   -0.00487716   -0.0173104   0.025752   0.0248013   -0.00606815   -0.0776447   -0.0619483   0.0251859   -0.037712   -0.0604582   -0.0727206   -0.0125571   -0.0461985   -0.0741893   0.0741017   -0.0340002   0.0534063   0.0191722   -0.0764431   
-0.0389885   0.0672816   0.0686702   -0.0618308   0.0434512   0.0443965   -0.0707979   -0.0646614   0.0772741   0.0819472   -0.0204347   0.00517411   0.0502873   0.0545706   -0.0559239   0.0423457   0.0129876   -0.00526704   -0.0390632   0.0630303   -0.062899   0.0140504   0.0525999   0.0655672   0.0679652   -0.0321203   0.0162561   0.0309218   -0.0174332   0.028166   0.0898622   0.0464901   
0.0774343   0.0916781   0.0366417   -0.0755512   0.0229962   0.0636659   -0.0214228   0.0481457   0.00883251   -0.00584384   -0.0781414   0.0176341   0.0163042   0.00681906   0.0797415   -0.0219355   -0.0320295   0.047649   -0.0142769   -0.0232012   0.0153856   0.0934191   0.077696   -0.0418831   -0.0354422   -0.0278317   0.0707851   -0.0586637   0.0757947   -0.0393944   0.0745717   0.0161921   
-0.0379203   0.0857445   -0.00249519   0.0513448   -0.0771694   -0.00436979   0.0440867   -0.0252147   0.037101   -0.0484576   -0.0522762   -0.0028637   -0.0469515   0.0814345   0.0947436   0.0614441   -0.0521   0.0219707   0.0825454   -0.00937407   0.0700427   -0.0608695   -0.0326437   -0.0339254   0.037523   -0.0204721   0.0945674   0.00859752   0.0296988   0.0173991   0.0420359   0.0201869   
-0.0288464   0.0746464   0.0945193   -0.0671662   0.069765   -0.0463533   0.00444243   -0.0520946   0.0329192   0.0353333   0.032241   0.0621438   0.0738347   0.0321876   0.0715061   0.0889863   0.0820113   -0.0762722   -0.0729235   0.0712123   0.0696635   0.0391626   0.0514783   0.018574   0.0182482   -0.0354636   0.0326148   0.0914057   -0.0380966   0.0644296   0.0883508   -0.0110457   
0.00694723   0.045267   0.0607712   0.0633828   0.0741871   -0.0747127   -0.0593153   -0.0568906   -0.0617721   -0.0615531   0.0903482   -0.0133903   0.0505811   0.0120797   -0.0552136   -0.0498462   0.0456409   0.0706783   0.0098526   0.0157541   -0.0335623   0.0556708   -0.0127387   -0.0373115   0.059217   0.038495   -0.055219   0.0539404   -0.0263736   0.0168009   -0.0130592   -0.054044   
0.042837   -0.053793   0.0942203   0.0678957   0.0550833   -0.0526714   -0.0387855   0.0289671   -0.0589415   0.0155618   -0.0231799   0.0749402   0.0637994   0.0483273   0.0266973   -0.0225977   -0.0647789   0.0422602   0.0612305   -0.0230998   0.0461643   0.050063   -0.0157189   0.0884843   0.0340034   -0.0755885   0.00577761   -0.0591498   -0.0253215   0.0138421   0.0635911   0.00761483   
-0.0516994   0.0377953   -0.0173638   -0.0732333   -0.0599669   -0.069217   0.0267667   0.0170199   -0.049467   0.0580367   0.0112893   -0.0629791   -0.0724108   0.042367   -0.0433251   0.0711376   0.0932749   0.0796721   -0.0735858   -0.062226   0.0532087   -0.0420594   -0.0705576   0.0789831   0.0622826   0.00703269   -0.0198526   -0.0227473   0.0334587   0.0691028   -0.0285954   0.0333251   
0.0139116   0.0170626   -0.0213373   -0.0241412   -0.00977462   0.0108673   -0.0495845   -0.0132247   -0.0531254   -0.00602542   -0.0717913   0.0632066   -0.0353354   -0.0551602   -0.0734896   0.0497266   0.0584159   0.0358032   0.0904657   0.0619782   0.0655458   -0.0608481   0.0869996   0.0601837   -0.0151794   -0.0671982   -0.0777355   0.0437342   0.026959   0.0703311   0.0908663   -0.0245524   
0.0763288   0.0677729   -0.0752307   0.0314986   -0.0745845   0.0220295   -0.0774151   -0.0642822   -0.0186082   0.0631906   -0.0730944   0.0743046   -0.0436937   -0.0693719   -0.019655   -0.000476394   -0.0346411   0.0752767   -0.0717272   -0.00643666   -0.0302564   0.0277387   0.0485463   0.0760457   0.063479   0.00990066   0.00138218   0.0263395   -0.00922452   -0.0454828   -0.0452425   0.0543142   
0.043307   -0.0146026   -0.0467219   0.0904764   -0.0260265   0.0229214   -0.0139457   -0.0457071   0.001489   -0.0577985   -0.0284779   -0.0533924   0.0174044   0.0488293   0.0146539   -0.0751613   0.0199039   -0.0255832   -0.0204187   0.0820647   -0.0140365   -0.0430261   -0.0419846   0.0885003   -0.0688005   -0.016787   -0.0234362   -0.00840205   -0.0559133   0.0578605   -0.00175283   0.0582183   
0.0687075   0.0521459   -0.0386573   -0.0199434   -0.0021427   -0.0535687   0.0359207   0.0509229   0.0256665   -0.030721   -0.0339415   0.0118821   0.071442   0.0477345   -0.0467432   -0.0770359   -0.0260479   -0.0037022   0.0239735   -0.017524   -0.0320455   0.0343506   -0.0132995   -0.0225443   -0.00795343   0.0843612   0.0717304   0.0114975   0.0646753   0.0657808   -0.0161782   0.0434352   
0.0274664   -0.0130859   -0.0390258   0.0579833   0.0176127   -0.0503429   -0.00535783   -0.0230143   -0.0314794   0.0943858   -0.0706484   0.0823424   0.0254849   0.0748868   -0.0776768   0.00915296   0.000495621   0.0156847   -0.0441316   0.0552702   -0.0719301   0.0915712   -0.0167763   0.0657808   0.0211483   -0.0183465   -0.0743602   -0.0114997   -0.0110938   0.0629075   0.0513181   -0.015799   
0.0406259   -0.00465285   0.0790312   -0.0125571   0.0373841   0.0639169   -0.0129791   -0.0731639   -0.00926191   0.0542021   -0.00489853   -0.0243175   -0.0547971   -0.0229769   0.0753674   -0.058386   -0.00637791   0.0440707   -0.0404465   -0.033621   0.0372506   0.00955885   -0.00144307   0.0693057   0.0397447   0.00515809   -0.00808695   0.00553728   0.0367486   0.00810617   0.0179225   -0.0522816   
-0.0496806   0.0698024   0.0321822   -0.0378829   0.0449092   0.0197383   -0.00980667   0.012806   -0.0258983   0.0721416   0.0618233   0.0400705   0.0548697   0.000111087   0.0682269   -0.0784565   0.0935099   0.0546667   -0.0158684   0.0872185   -0.0749797   0.0684672   -0.0639938   -0.0281574   -0.0348494   -0.0783764   -0.0360083   -0.0240023   -0.0132461   0.084452   0.0781553   0.0941722   
0.0197757   -0.0106612   0.00198569   0.00614078   0.0115242   -0.0531201   0.00865627   0.0901773   0.0464847   -0.0166749   -0.0321043   -0.0708673   0.0373254   0.0893442   -0.0658951   0.0681094   -0.0135772   -0.0175988   0.0935687   0.0946475   0.0795225   0.0726543   0.0762487   0.0251698   -0.0391968   -0.0154465   0.000175176   -0.00624439   -0.0489169   -0.000770135   -0.0711184   -0.0233081   
0.0583091   0.019749   -0.0651848   -0.0258769   0.0671534   0.0243207   0.0742299   -0.0677911   0.0568511   -0.0653984   0.0165339   0.00197501   0.0840248   0.0641145   0.0835548   0.0684298   -0.0452638   0.0739308   -0.0583433   0.0210094   -0.0775326   0.0507039   0.0272634   0.0490323   0.0862145   0.0591423   0.0235943   -0.0168618   0.0254796   0.0339554   -0.00567293   -0.058605   
-0.0536648   0.0385484   0.066897   0.0761419   -0.024686   -0.0447565   0.0710895   -0.0698633   -0.0747394   0.0345428   -0.0742106   -0.0768383   0.0200053   -0.0319547   0.0794478   0.0525999   0.00191626   0.0126191   -0.00294382   0.0791273   0.084185   0.0804198   -0.0505939   -0.0438592   -0.0530132   -0.0276981   0.0722378   0.0489575   -0.0607253   -0.00563555   0.026035   0.0773649   
-0.0146347   0.0599594   0.049294   0.00273873   0.00811686   0.0170679   0.0857552   0.0431628   -0.00711493   0.00341166   0.0535879   0.0627419   0.00391369   0.0689853   0.0370103   0.0686915   0.0275091   -0.0314527   -0.0317518   -0.037728   -0.0464281   -0.0611846   0.0303717   -0.072822   0.0948344   0.0376939   -0.0510746   -0.048527   -0.0695909   0.085408   -0.022085   0.041646   
0.0229962   0.0599274   -0.00207862   -0.0250705   0.0712764   0.0114228   0.0570861   -0.0265606   -0.0280399   0.0482205   -0.00234031   -0.0787983   0.00297372   -0.0160179   -0.076176   0.0827323   0.00216193   0.0735302   0.0285665   0.0691989   -0.0468661   -0.0228541   -0.0398216   0.0608032   -0.0724642   0.00566546   -0.0786648   -0.0185601   0.0454166   0.0362465   0.00620487   -0.0657402   
-0.0220797   -0.0238902   -0.0314634   0.0442042   0.0540899   -0.0358535   -0.0487193   0.0411173   -0.00416684   -0.0123115   -0.00440184   0.0545386   -0.0319868   0.0793249   0.0848045   -0.0212732   -0.0323766   0.0710895   -0.0588133   -0.0708834   -0.0360244   0.0708545   -0.0187844   0.023621   -0.0359977   -0.0617026   0.0219814   0.0850609   -0.0355971   -0.0247233   -0.0555074   -0.0518062   
0.014937   0.0579086   -0.0432611   0.0925112   0.00444777   -0.049686   -0.0631019   -0.0407082   0.0939479   -0.0477526   0.0498441   -0.0258235   0.00844798   0.070502   0.0172015   0.0836563   0.0367272   0.0164591   -0.0658631   -0.0482814   0.0257894   -0.0303845   0.0132066   -0.0747714   0.0942042   0.0343933   0.0482151   0.039013   0.0510991   0.0800993   0.00371609   0.0194072   
0.0199199   -0.00858898   0.0729695   0.00726234   -0.0461611   0.0942203   0.0348312   0.0590408   0.0168223   0.0340675   -0.0723307   0.0720455   0.0422869   0.0722324   -0.0543751   -0.0575582   0.0433978   -0.0733882   0.000281991   0.0271619   -0.0131553   -0.00266076   0.00320338   -0.0318105   -0.0707765   -0.0705416   0.0872346   -0.0245524   -0.0472079   0.0525358   0.072147   0.00181478   
-0.0501506   -0.0505565   0.0175166   0.0313598   0.092351   0.0443484   -0.056693   0.0644029   -0.0639137   -0.0629951   0.0362091   0.0455127   -0.0288678   0.0734555   -0.0529812   0.0680132   0.0676661   -0.0447778   0.0723286   0.0510671   0.0290365   0.00212455   -0.0743815   -0.0769825   0.0262326   -0.079263   -0.00891476   0.0319793   0.000404828   -0.00636723   0.0653963   0.0173189   
0.00779641   0.0665552   -0.0444948   0.0631532   0.0686541   0.0234394   0.0879182   -0.032617   0.0944713   0.0266759   0.022414   -0.0525646   0.0301955   -0.0626907   -0.0493175   0.0162294   0.085643   0.0426981   0.0228199   -0.0754817   -0.0321683   0.056317   -0.0427964   0.00321406   -0.036505   0.0921854   0.0766652   0.00169195   -0.0165734   0.0536627   -0.0735644   -0.0692224   
-0.0570829   0.0889863   -0.00808695   0.00647191   0.0400117   -0.0465723   0.0465755   0.0279737   -0.0692331   -0.0696229   -0.00189703   0.0111344   0.08826   -0.0738208   0.088244   -0.0390579   -0.0304646   0.0911493   0.0141679   0.0790953   -0.0477099   -0.0685441   -0.0479395   -0.0097586   0.0903749   -0.035533   0.0756986   0.0331382   0.0249402   0.0820914   -0.0244296   0.0500256   
-0.0745257   0.0747212   -0.00343516   -0.0543912   -0.0276981   -0.0195268   -0.050455   0.0741124   0.00489639   -0.0628562   0.014937   -0.0496005   -0.00229225   0.0016599   -0.0063245   -0.00602008   0.0126618   -0.0355918   -0.0264003   0.0768094   -0.0599188   -0.0266781   -0.0333807   -0.0664666   -0.0476885   0.0699786   0.00975646   -0.0696603   0.0566375   -0.0223734   0.0354508   0.0758535   
0.0218265   0.0434565   -0.0458834   -0.0296635   -0.010031   -0.0500385   -0.0455522   0.0267186   0.0728573   -0.0522655   0.0644029   0.00947874   -0.05547   -0.00044969   0.0283102   -0.0498889   0.0544104   0.0130357   -0.0567945   0.0101677   0.0474567   0.0518949   0.084671   -0.0245097   0.0408716   0.0278242   0.0152734   0.0277921   -0.00620701   0.0381852   -0.043934   -0.0229662   
0.0194072   -0.0233882   -0.0359282   0.000885495   0.0260724   -0.0685121   0.0712391   0.0746838   -0.0382728   -0.000385601   0.0778402   0.0881051   -0.0767048   -0.020125   0.0558097   -0.0679086   0.00527024   0.02431   0.0799124   -0.0228648   0.0242619   0.0863907   0.067335   0.00148366   0.0436808   -0.0561589   -0.00650075   -0.0345503   0.0852745   0.0859101   -0.0352446   -0.00968917   
-0.048244   -0.00768639   0.0657862   -0.0370498   -0.00275155   0.0438731   -0.0127921   -0.0251506   0.0947223   0.0919718   -0.0735591   0.0914698   0.0871758   0.0518949   -0.0328253   -0.0393516   0.0218319   -0.0777836   -0.0445108   0.0811568   -0.0460649   0.0452297   0.0530859   -0.0101485   0.0694766   0.0605736   -0.0394531   0.0887513   0.0385484   -0.00785195   -0.0337919   -0.0796208   
