-0.0687913   0.00479901   0.562976   -0.0286045   -0.000697353   0.287985   0.279811   0.481589   0.274074   -0.336822   0.302828   -0.0981782   0.596698   0.047686   0.339526   -0.207721   0.411004   0.0398018   0.0677084   0.527664   0.141064   0.0899804   0.247519   0.787768   -0.0728558   0.304292   0.0262455   0.00737683   0.221946   -0.013389   0.23182   0.183657   
0.12715   0.109777   0.0646457   -0.0533645   0.2016   -0.02148   0.0395019   0.062984   0.0408895   0.1012   0.070819   0.204956   -0.0281385   -0.0520884   0.0866066   0.0624621   0.0207155   -0.0320589   0.119052   0.0946569   -0.130821   0.146569   0.0886558   0.130188   -0.0347546   -0.0433913   0.0835864   -0.00778183   0.0741563   0.170707   0.0603439   0.138055   
0.472117   0.352384   0.143995   -0.0473058   -0.208458   -0.0749139   -0.0467832   -0.0494147   0.156212   0.00194838   0.0139238   -0.162833   0.0300672   0.0132366   0.0932322   -0.00608783   -0.0836987   0.0658396   0.0806406   0.0242375   -0.158477   -0.180897   0.133583   0.0722037   0.0227276   0.0575655   -0.177888   0.0371729   -0.121902   0.020624   0.116223   0.10371   
-0.601767   -1.83395   0   0   0   0   0   0   0   0   0   0   0   0   0   0   0   0   0   0   0   0   0   0   0   0   0   0   0   0   0   0   
